#pragma once
#include <cstdarg>
namespace Eloquent {
    namespace ML {
        namespace Port {
            class RandomForest {
                public:
                    /**
                    * Predict class for features vector
                    */
                    int predict(float *x) {
                        uint8_t votes[3] = { 0 };
                        // tree #1
                        if (x[1128] <= 0.5) {
                            if (x[451] <= 0.5) {
                                votes[0] += 1;
                            }

                            else {
                                votes[2] += 1;
                            }
                        }

                        else {
                            votes[1] += 1;
                        }

                        // tree #2
                        if (x[435] <= 0.5) {
                            votes[0] += 1;
                        }

                        else {
                            if (x[813] <= 0.5) {
                                votes[2] += 1;
                            }

                            else {
                                votes[1] += 1;
                            }
                        }

                        // tree #3
                        if (x[1336] <= 0.5) {
                            if (x[1305] <= 0.5) {
                                votes[2] += 1;
                            }

                            else {
                                votes[1] += 1;
                            }
                        }

                        else {
                            votes[0] += 1;
                        }

                        // tree #4
                        if (x[1114] <= 0.5) {
                            if (x[45] <= 0.5) {
                                votes[0] += 1;
                            }

                            else {
                                votes[2] += 1;
                            }
                        }

                        else {
                            votes[1] += 1;
                        }

                        // tree #5
                        if (x[308] <= 0.5) {
                            if (x[838] <= 0.5) {
                                votes[0] += 1;
                            }

                            else {
                                votes[1] += 1;
                            }
                        }

                        else {
                            votes[2] += 1;
                        }

                        // tree #6
                        if (x[835] <= 0.5) {
                            if (x[310] <= 0.5) {
                                votes[0] += 1;
                            }

                            else {
                                votes[2] += 1;
                            }
                        }

                        else {
                            votes[1] += 1;
                        }

                        // tree #7
                        if (x[480] <= 0.5) {
                            votes[2] += 1;
                        }

                        else {
                            if (x[1363] <= 0.5) {
                                votes[1] += 1;
                            }

                            else {
                                votes[0] += 1;
                            }
                        }

                        // tree #8
                        if (x[696] <= 0.5) {
                            votes[0] += 1;
                        }

                        else {
                            if (x[193] <= 0.5) {
                                votes[2] += 1;
                            }

                            else {
                                votes[1] += 1;
                            }
                        }

                        // tree #9
                        if (x[1239] <= 0.5) {
                            votes[0] += 1;
                        }

                        else {
                            if (x[651] <= 0.5) {
                                votes[1] += 1;
                            }

                            else {
                                votes[2] += 1;
                            }
                        }

                        // tree #10
                        if (x[1059] <= 0.5) {
                            if (x[683] <= 0.5) {
                                votes[1] += 1;
                            }

                            else {
                                votes[2] += 1;
                            }
                        }

                        else {
                            votes[0] += 1;
                        }

                        // tree #11
                        if (x[1017] <= 0.5) {
                            votes[2] += 1;
                        }

                        else {
                            if (x[986] <= 0.5) {
                                votes[0] += 1;
                            }

                            else {
                                votes[1] += 1;
                            }
                        }

                        // tree #12
                        if (x[1142] <= 0.5) {
                            if (x[727] <= 0.5) {
                                votes[0] += 1;
                            }

                            else {
                                votes[2] += 1;
                            }
                        }

                        else {
                            votes[1] += 1;
                        }

                        // tree #13
                        if (x[696] <= 0.5) {
                            votes[0] += 1;
                        }

                        else {
                            if (x[1218] <= 0.5) {
                                votes[1] += 1;
                            }

                            else {
                                votes[2] += 1;
                            }
                        }

                        // tree #14
                        if (x[680] <= 0.5) {
                            if (x[1337] <= 0.5) {
                                votes[1] += 1;
                            }

                            else {
                                votes[0] += 1;
                            }
                        }

                        else {
                            votes[2] += 1;
                        }

                        // tree #15
                        if (x[1340] <= 0.5) {
                            if (x[1332] <= 0.5) {
                                votes[1] += 1;
                            }

                            else {
                                votes[0] += 1;
                            }
                        }

                        else {
                            votes[2] += 1;
                        }

                        // tree #16
                        if (x[72] <= 0.5) {
                            if (x[1155] <= 0.5) {
                                votes[0] += 1;
                            }

                            else {
                                votes[1] += 1;
                            }
                        }

                        else {
                            votes[2] += 1;
                        }

                        // tree #17
                        if (x[724] <= 0.5) {
                            votes[0] += 1;
                        }

                        else {
                            if (x[1068] <= 0.5) {
                                votes[2] += 1;
                            }

                            else {
                                votes[1] += 1;
                            }
                        }

                        // tree #18
                        if (x[48] <= 0.5) {
                            votes[0] += 1;
                        }

                        else {
                            if (x[631] <= 0.5) {
                                votes[1] += 1;
                            }

                            else {
                                votes[2] += 1;
                            }
                        }

                        // tree #19
                        if (x[358] <= 0.5) {
                            if (x[1110] <= 0.5) {
                                votes[0] += 1;
                            }

                            else {
                                votes[1] += 1;
                            }
                        }

                        else {
                            votes[2] += 1;
                        }

                        // tree #20
                        if (x[72] <= 0.5) {
                            if (x[424] <= 0.5) {
                                votes[0] += 1;
                            }

                            else {
                                votes[1] += 1;
                            }
                        }

                        else {
                            votes[2] += 1;
                        }

                        // tree #21
                        if (x[1482] <= 0.5) {
                            votes[1] += 1;
                        }

                        else {
                            if (x[745] <= 0.5) {
                                votes[2] += 1;
                            }

                            else {
                                votes[0] += 1;
                            }
                        }

                        // tree #22
                        if (x[710] <= 0.5) {
                            votes[0] += 1;
                        }

                        else {
                            if (x[650] <= 0.5) {
                                votes[1] += 1;
                            }

                            else {
                                votes[2] += 1;
                            }
                        }

                        // tree #23
                        if (x[646] <= 0.5) {
                            if (x[1105] <= 0.5) {
                                votes[0] += 1;
                            }

                            else {
                                votes[1] += 1;
                            }
                        }

                        else {
                            votes[2] += 1;
                        }

                        // tree #24
                        if (x[1353] <= 0.5) {
                            if (x[1129] <= 0.5) {
                                votes[0] += 1;
                            }

                            else {
                                votes[1] += 1;
                            }
                        }

                        else {
                            votes[2] += 1;
                        }

                        // tree #25
                        if (x[805] <= 0.5) {
                            votes[2] += 1;
                        }

                        else {
                            if (x[435] <= 0.5) {
                                votes[0] += 1;
                            }

                            else {
                                votes[1] += 1;
                            }
                        }

                        // tree #26
                        if (x[1321] <= 0.5) {
                            votes[2] += 1;
                        }

                        else {
                            if (x[709] <= 0.5) {
                                votes[0] += 1;
                            }

                            else {
                                votes[1] += 1;
                            }
                        }

                        // tree #27
                        if (x[1233] <= 0.5) {
                            if (x[1061] <= 0.5) {
                                votes[1] += 1;
                            }

                            else {
                                votes[0] += 1;
                            }
                        }

                        else {
                            votes[2] += 1;
                        }

                        // tree #28
                        if (x[49] <= 0.5) {
                            votes[0] += 1;
                        }

                        else {
                            if (x[371] <= 0.5) {
                                votes[1] += 1;
                            }

                            else {
                                votes[2] += 1;
                            }
                        }

                        // tree #29
                        if (x[307] <= 0.5) {
                            if (x[744] <= 0.5) {
                                votes[1] += 1;
                            }

                            else {
                                votes[0] += 1;
                            }
                        }

                        else {
                            votes[2] += 1;
                        }

                        // tree #30
                        if (x[1094] <= 0.5) {
                            if (x[1334] <= 0.5) {
                                votes[2] += 1;
                            }

                            else {
                                votes[0] += 1;
                            }
                        }

                        else {
                            votes[1] += 1;
                        }

                        // tree #31
                        if (x[1355] <= 0.5) {
                            if (x[1118] <= 0.5) {
                                votes[0] += 1;
                            }

                            else {
                                votes[1] += 1;
                            }
                        }

                        else {
                            votes[2] += 1;
                        }

                        // tree #32
                        if (x[724] <= 0.5) {
                            votes[0] += 1;
                        }

                        else {
                            if (x[813] <= 0.5) {
                                votes[2] += 1;
                            }

                            else {
                                votes[1] += 1;
                            }
                        }

                        // tree #33
                        if (x[495] <= 0.5) {
                            if (x[809] <= 0.5) {
                                votes[2] += 1;
                            }

                            else {
                                votes[1] += 1;
                            }
                        }

                        else {
                            votes[0] += 1;
                        }

                        // tree #34
                        if (x[959] <= 0.5) {
                            if (x[146] <= 0.5) {
                                votes[0] += 1;
                            }

                            else {
                                votes[1] += 1;
                            }
                        }

                        else {
                            votes[2] += 1;
                        }

                        // tree #35
                        if (x[847] <= 0.5) {
                            if (x[787] <= 0.5) {
                                votes[2] += 1;
                            }

                            else {
                                votes[0] += 1;
                            }
                        }

                        else {
                            votes[1] += 1;
                        }

                        // tree #36
                        if (x[713] <= 0.5) {
                            votes[0] += 1;
                        }

                        else {
                            if (x[1584] <= 0.5) {
                                votes[2] += 1;
                            }

                            else {
                                votes[1] += 1;
                            }
                        }

                        // tree #37
                        if (x[781] <= 0.5) {
                            votes[2] += 1;
                        }

                        else {
                            if (x[713] <= 0.5) {
                                votes[0] += 1;
                            }

                            else {
                                votes[1] += 1;
                            }
                        }

                        // tree #38
                        if (x[1100] <= 0.5) {
                            if (x[29] <= 0.5) {
                                votes[0] += 1;
                            }

                            else {
                                votes[2] += 1;
                            }
                        }

                        else {
                            votes[1] += 1;
                        }

                        // tree #39
                        if (x[532] <= 0.5) {
                            votes[1] += 1;
                        }

                        else {
                            if (x[712] <= 0.5) {
                                votes[0] += 1;
                            }

                            else {
                                votes[2] += 1;
                            }
                        }

                        // tree #40
                        if (x[1307] <= 0.5) {
                            votes[2] += 1;
                        }

                        else {
                            if (x[831] <= 0.5) {
                                votes[0] += 1;
                            }

                            else {
                                votes[1] += 1;
                            }
                        }

                        // tree #41
                        if (x[1364] <= 0.5) {
                            if (x[586] <= 0.5) {
                                votes[1] += 1;
                            }

                            else {
                                votes[2] += 1;
                            }
                        }

                        else {
                            votes[0] += 1;
                        }

                        // tree #42
                        if (x[217] <= 0.5) {
                            if (x[823] <= 0.5) {
                                votes[2] += 1;
                            }

                            else {
                                votes[1] += 1;
                            }
                        }

                        else {
                            votes[0] += 1;
                        }

                        // tree #43
                        if (x[942] <= 0.5) {
                            if (x[1261] <= 0.5) {
                                votes[0] += 1;
                            }

                            else {
                                votes[1] += 1;
                            }
                        }

                        else {
                            votes[2] += 1;
                        }

                        // tree #44
                        if (x[509] <= 0.5) {
                            if (x[1143] <= 0.5) {
                                votes[2] += 1;
                            }

                            else {
                                votes[1] += 1;
                            }
                        }

                        else {
                            votes[0] += 1;
                        }

                        // tree #45
                        if (x[1304] <= 0.5) {
                            votes[2] += 1;
                        }

                        else {
                            if (x[33] <= 0.5) {
                                votes[0] += 1;
                            }

                            else {
                                votes[1] += 1;
                            }
                        }

                        // tree #46
                        if (x[819] <= 0.5) {
                            if (x[51] <= 0.5) {
                                votes[0] += 1;
                            }

                            else {
                                votes[2] += 1;
                            }
                        }

                        else {
                            votes[1] += 1;
                        }

                        // tree #47
                        if (x[1083] <= 0.5) {
                            if (x[696] <= 0.5) {
                                votes[0] += 1;
                            }

                            else {
                                votes[2] += 1;
                            }
                        }

                        else {
                            votes[1] += 1;
                        }

                        // tree #48
                        if (x[270] <= 0.5) {
                            if (x[1123] <= 0.5) {
                                votes[0] += 1;
                            }

                            else {
                                votes[1] += 1;
                            }
                        }

                        else {
                            votes[2] += 1;
                        }

                        // tree #49
                        if (x[1363] <= 0.5) {
                            if (x[24] <= 0.5) {
                                votes[1] += 1;
                            }

                            else {
                                votes[2] += 1;
                            }
                        }

                        else {
                            votes[0] += 1;
                        }

                        // tree #50
                        if (x[1102] <= 0.5) {
                            if (x[1216] <= 0.5) {
                                votes[0] += 1;
                            }

                            else {
                                votes[2] += 1;
                            }
                        }

                        else {
                            votes[1] += 1;
                        }

                        // tree #51
                        if (x[987] <= 0.5) {
                            votes[0] += 1;
                        }

                        else {
                            if (x[1584] <= 0.5) {
                                votes[2] += 1;
                            }

                            else {
                                votes[1] += 1;
                            }
                        }

                        // tree #52
                        if (x[1154] <= 0.5) {
                            if (x[436] <= 0.5) {
                                votes[0] += 1;
                            }

                            else {
                                votes[2] += 1;
                            }
                        }

                        else {
                            votes[1] += 1;
                        }

                        // tree #53
                        if (x[833] <= 0.5) {
                            votes[0] += 1;
                        }

                        else {
                            if (x[1154] <= 0.5) {
                                votes[2] += 1;
                            }

                            else {
                                votes[1] += 1;
                            }
                        }

                        // tree #54
                        if (x[726] <= 0.5) {
                            votes[0] += 1;
                        }

                        else {
                            if (x[465] <= 0.5) {
                                votes[2] += 1;
                            }

                            else {
                                votes[1] += 1;
                            }
                        }

                        // tree #55
                        if (x[1377] <= 0.5) {
                            if (x[843] <= 0.5) {
                                votes[2] += 1;
                            }

                            else {
                                votes[1] += 1;
                            }
                        }

                        else {
                            votes[0] += 1;
                        }

                        // tree #56
                        if (x[1001] <= 0.5) {
                            votes[2] += 1;
                        }

                        else {
                            if (x[1113] <= 0.5) {
                                votes[0] += 1;
                            }

                            else {
                                votes[1] += 1;
                            }
                        }

                        // tree #57
                        if (x[814] <= 0.5) {
                            votes[2] += 1;
                        }

                        else {
                            if (x[1512] <= 0.5) {
                                votes[1] += 1;
                            }

                            else {
                                votes[0] += 1;
                            }
                        }

                        // tree #58
                        if (x[205] <= 0.5) {
                            votes[2] += 1;
                        }

                        else {
                            if (x[698] <= 0.5) {
                                votes[0] += 1;
                            }

                            else {
                                votes[1] += 1;
                            }
                        }

                        // tree #59
                        if (x[828] <= 0.5) {
                            votes[2] += 1;
                        }

                        else {
                            if (x[1114] <= 0.5) {
                                votes[0] += 1;
                            }

                            else {
                                votes[1] += 1;
                            }
                        }

                        // tree #60
                        if (x[1332] <= 0.5) {
                            if (x[780] <= 0.5) {
                                votes[2] += 1;
                            }

                            else {
                                votes[1] += 1;
                            }
                        }

                        else {
                            votes[0] += 1;
                        }

                        // tree #61
                        if (x[235] <= 0.5) {
                            if (x[1124] <= 0.5) {
                                votes[2] += 1;
                            }

                            else {
                                votes[1] += 1;
                            }
                        }

                        else {
                            votes[0] += 1;
                        }

                        // tree #62
                        if (x[834] <= 0.5) {
                            if (x[379] <= 0.5) {
                                votes[0] += 1;
                            }

                            else {
                                votes[2] += 1;
                            }
                        }

                        else {
                            votes[1] += 1;
                        }

                        // tree #63
                        if (x[724] <= 0.5) {
                            votes[0] += 1;
                        }

                        else {
                            if (x[1306] <= 0.5) {
                                votes[2] += 1;
                            }

                            else {
                                votes[1] += 1;
                            }
                        }

                        // tree #64
                        if (x[1209] <= 0.5) {
                            votes[0] += 1;
                        }

                        else {
                            if (x[1017] <= 0.5) {
                                votes[2] += 1;
                            }

                            else {
                                votes[1] += 1;
                            }
                        }

                        // tree #65
                        if (x[387] <= 0.5) {
                            if (x[49] <= 0.5) {
                                votes[0] += 1;
                            }

                            else {
                                votes[1] += 1;
                            }
                        }

                        else {
                            votes[2] += 1;
                        }

                        // tree #66
                        if (x[117] <= 0.5) {
                            votes[0] += 1;
                        }

                        else {
                            if (x[844] <= 0.5) {
                                votes[2] += 1;
                            }

                            else {
                                votes[1] += 1;
                            }
                        }

                        // tree #67
                        if (x[236] <= 0.5) {
                            if (x[293] <= 0.5) {
                                votes[1] += 1;
                            }

                            else {
                                votes[2] += 1;
                            }
                        }

                        else {
                            votes[0] += 1;
                        }

                        // tree #68
                        if (x[665] <= 0.5) {
                            if (x[1509] <= 0.5) {
                                votes[0] += 1;
                            }

                            else {
                                votes[1] += 1;
                            }
                        }

                        else {
                            votes[2] += 1;
                        }

                        // tree #69
                        if (x[37] <= 0.5) {
                            votes[0] += 1;
                        }

                        else {
                            if (x[817] <= 0.5) {
                                votes[2] += 1;
                            }

                            else {
                                votes[1] += 1;
                            }
                        }

                        // tree #70
                        if (x[1321] <= 0.5) {
                            votes[2] += 1;
                        }

                        else {
                            if (x[765] <= 0.5) {
                                votes[1] += 1;
                            }

                            else {
                                votes[0] += 1;
                            }
                        }

                        // tree #71
                        if (x[1247] <= 0.5) {
                            if (x[1497] <= 0.5) {
                                votes[1] += 1;
                            }

                            else {
                                votes[0] += 1;
                            }
                        }

                        else {
                            votes[2] += 1;
                        }

                        // tree #72
                        if (x[766] <= 0.5) {
                            if (x[1492] <= 0.5) {
                                votes[1] += 1;
                            }

                            else {
                                votes[2] += 1;
                            }
                        }

                        else {
                            votes[0] += 1;
                        }

                        // tree #73
                        if (x[1139] <= 0.5) {
                            if (x[280] <= 0.5) {
                                votes[0] += 1;
                            }

                            else {
                                votes[2] += 1;
                            }
                        }

                        else {
                            votes[1] += 1;
                        }

                        // tree #74
                        if (x[808] <= 0.5) {
                            votes[2] += 1;
                        }

                        else {
                            if (x[1093] <= 0.5) {
                                votes[0] += 1;
                            }

                            else {
                                votes[1] += 1;
                            }
                        }

                        // tree #75
                        if (x[1083] <= 0.5) {
                            if (x[666] <= 0.5) {
                                votes[0] += 1;
                            }

                            else {
                                votes[2] += 1;
                            }
                        }

                        else {
                            votes[1] += 1;
                        }

                        // tree #76
                        if (x[842] <= 0.5) {
                            if (x[496] <= 0.5) {
                                votes[2] += 1;
                            }

                            else {
                                votes[0] += 1;
                            }
                        }

                        else {
                            votes[1] += 1;
                        }

                        // tree #77
                        if (x[373] <= 0.5) {
                            if (x[1046] <= 0.5) {
                                votes[1] += 1;
                            }

                            else {
                                votes[0] += 1;
                            }
                        }

                        else {
                            votes[2] += 1;
                        }

                        // tree #78
                        if (x[204] <= 0.5) {
                            votes[2] += 1;
                        }

                        else {
                            if (x[1538] <= 0.5) {
                                votes[0] += 1;
                            }

                            else {
                                votes[1] += 1;
                            }
                        }

                        // tree #79
                        if (x[812] <= 0.5) {
                            votes[2] += 1;
                        }

                        else {
                            if (x[1139] <= 0.5) {
                                votes[0] += 1;
                            }

                            else {
                                votes[1] += 1;
                            }
                        }

                        // tree #80
                        if (x[713] <= 0.5) {
                            votes[0] += 1;
                        }

                        else {
                            if (x[1087] <= 0.5) {
                                votes[2] += 1;
                            }

                            else {
                                votes[1] += 1;
                            }
                        }

                        // tree #81
                        if (x[406] <= 0.5) {
                            votes[0] += 1;
                        }

                        else {
                            if (x[661] <= 0.5) {
                                votes[1] += 1;
                            }

                            else {
                                votes[2] += 1;
                            }
                        }

                        // tree #82
                        if (x[72] <= 0.5) {
                            if (x[1084] <= 0.5) {
                                votes[0] += 1;
                            }

                            else {
                                votes[1] += 1;
                            }
                        }

                        else {
                            votes[2] += 1;
                        }

                        // tree #83
                        if (x[1337] <= 0.5) {
                            if (x[651] <= 0.5) {
                                votes[1] += 1;
                            }

                            else {
                                votes[2] += 1;
                            }
                        }

                        else {
                            votes[0] += 1;
                        }

                        // tree #84
                        if (x[988] <= 0.5) {
                            if (x[661] <= 0.5) {
                                votes[0] += 1;
                            }

                            else {
                                votes[2] += 1;
                            }
                        }

                        else {
                            votes[1] += 1;
                        }

                        // tree #85
                        if (x[1129] <= 0.5) {
                            if (x[1509] <= 0.5) {
                                votes[0] += 1;
                            }

                            else {
                                votes[2] += 1;
                            }
                        }

                        else {
                            votes[1] += 1;
                        }

                        // tree #86
                        if (x[308] <= 0.5) {
                            if (x[1362] <= 0.5) {
                                votes[1] += 1;
                            }

                            else {
                                votes[0] += 1;
                            }
                        }

                        else {
                            votes[2] += 1;
                        }

                        // tree #87
                        if (x[809] <= 0.5) {
                            votes[2] += 1;
                        }

                        else {
                            if (x[1058] <= 0.5) {
                                votes[1] += 1;
                            }

                            else {
                                votes[0] += 1;
                            }
                        }

                        // tree #88
                        if (x[782] <= 0.5) {
                            votes[2] += 1;
                        }

                        else {
                            if (x[1093] <= 0.5) {
                                votes[0] += 1;
                            }

                            else {
                                votes[1] += 1;
                            }
                        }

                        // tree #89
                        if (x[1151] <= 0.5) {
                            if (x[450] <= 0.5) {
                                votes[0] += 1;
                            }

                            else {
                                votes[2] += 1;
                            }
                        }

                        else {
                            votes[1] += 1;
                        }

                        // tree #90
                        if (x[1218] <= 0.5) {
                            if (x[391] <= 0.5) {
                                votes[0] += 1;
                            }

                            else {
                                votes[1] += 1;
                            }
                        }

                        else {
                            votes[2] += 1;
                        }

                        // tree #91
                        if (x[1115] <= 0.5) {
                            if (x[386] <= 0.5) {
                                votes[0] += 1;
                            }

                            else {
                                votes[2] += 1;
                            }
                        }

                        else {
                            votes[1] += 1;
                        }

                        // tree #92
                        if (x[48] <= 0.5) {
                            votes[0] += 1;
                        }

                        else {
                            if (x[959] <= 0.5) {
                                votes[1] += 1;
                            }

                            else {
                                votes[2] += 1;
                            }
                        }

                        // tree #93
                        if (x[1141] <= 0.5) {
                            if (x[972] <= 0.5) {
                                votes[0] += 1;
                            }

                            else {
                                votes[2] += 1;
                            }
                        }

                        else {
                            votes[1] += 1;
                        }

                        // tree #94
                        if (x[28] <= 0.5) {
                            if (x[1082] <= 0.5) {
                                votes[0] += 1;
                            }

                            else {
                                votes[1] += 1;
                            }
                        }

                        else {
                            votes[2] += 1;
                        }

                        // tree #95
                        if (x[132] <= 0.5) {
                            votes[0] += 1;
                        }

                        else {
                            if (x[783] <= 0.5) {
                                votes[2] += 1;
                            }

                            else {
                                votes[1] += 1;
                            }
                        }

                        // tree #96
                        if (x[480] <= 0.5) {
                            votes[2] += 1;
                        }

                        else {
                            if (x[510] <= 0.5) {
                                votes[1] += 1;
                            }

                            else {
                                votes[0] += 1;
                            }
                        }

                        // tree #97
                        if (x[1033] <= 0.5) {
                            if (x[1527] <= 0.5) {
                                votes[1] += 1;
                            }

                            else {
                                votes[2] += 1;
                            }
                        }

                        else {
                            votes[0] += 1;
                        }

                        // tree #98
                        if (x[1523] <= 0.5) {
                            votes[0] += 1;
                        }

                        else {
                            if (x[1287] <= 0.5) {
                                votes[2] += 1;
                            }

                            else {
                                votes[1] += 1;
                            }
                        }

                        // tree #99
                        if (x[1597] <= 0.5) {
                            votes[2] += 1;
                        }

                        else {
                            if (x[467] <= 0.5) {
                                votes[0] += 1;
                            }

                            else {
                                votes[1] += 1;
                            }
                        }

                        // tree #100
                        if (x[482] <= 0.5) {
                            if (x[854] <= 0.5) {
                                votes[2] += 1;
                            }

                            else {
                                votes[1] += 1;
                            }
                        }

                        else {
                            votes[0] += 1;
                        }

                        // tree #101
                        if (x[812] <= 0.5) {
                            votes[2] += 1;
                        }

                        else {
                            if (x[1153] <= 0.5) {
                                votes[0] += 1;
                            }

                            else {
                                votes[1] += 1;
                            }
                        }

                        // tree #102
                        if (x[46] <= 0.5) {
                            votes[0] += 1;
                        }

                        else {
                            if (x[1115] <= 0.5) {
                                votes[2] += 1;
                            }

                            else {
                                votes[1] += 1;
                            }
                        }

                        // tree #103
                        if (x[1307] <= 0.5) {
                            votes[2] += 1;
                        }

                        else {
                            if (x[742] <= 0.5) {
                                votes[1] += 1;
                            }

                            else {
                                votes[0] += 1;
                            }
                        }

                        // tree #104
                        if (x[651] <= 0.5) {
                            if (x[822] <= 0.5) {
                                votes[0] += 1;
                            }

                            else {
                                votes[1] += 1;
                            }
                        }

                        else {
                            votes[2] += 1;
                        }

                        // tree #105
                        if (x[40] <= 0.5) {
                            if (x[511] <= 0.5) {
                                votes[1] += 1;
                            }

                            else {
                                votes[0] += 1;
                            }
                        }

                        else {
                            votes[2] += 1;
                        }

                        // tree #106
                        if (x[1596] <= 0.5) {
                            votes[2] += 1;
                        }

                        else {
                            if (x[146] <= 0.5) {
                                votes[0] += 1;
                            }

                            else {
                                votes[1] += 1;
                            }
                        }

                        // tree #107
                        if (x[797] <= 0.5) {
                            votes[2] += 1;
                        }

                        else {
                            if (x[1073] <= 0.5) {
                                votes[1] += 1;
                            }

                            else {
                                votes[0] += 1;
                            }
                        }

                        // tree #108
                        if (x[74] <= 0.5) {
                            votes[0] += 1;
                        }

                        else {
                            votes[2] += 1;
                        }

                        // tree #109
                        if (x[1248] <= 0.5) {
                            votes[0] += 1;
                        }

                        else {
                            if (x[337] <= 0.5) {
                                votes[1] += 1;
                            }

                            else {
                                votes[2] += 1;
                            }
                        }

                        // tree #110
                        if (x[1521] <= 0.5) {
                            votes[0] += 1;
                        }

                        else {
                            if (x[853] <= 0.5) {
                                votes[2] += 1;
                            }

                            else {
                                votes[1] += 1;
                            }
                        }

                        // tree #111
                        if (x[761] <= 0.5) {
                            votes[2] += 1;
                        }

                        else {
                            if (x[1111] <= 0.5) {
                                votes[0] += 1;
                            }

                            else {
                                votes[1] += 1;
                            }
                        }

                        // tree #112
                        if (x[1107] <= 0.5) {
                            votes[0] += 1;
                        }

                        else {
                            if (x[841] <= 0.5) {
                                votes[2] += 1;
                            }

                            else {
                                votes[1] += 1;
                            }
                        }

                        // tree #113
                        if (x[1287] <= 0.5) {
                            votes[2] += 1;
                        }

                        else {
                            if (x[765] <= 0.5) {
                                votes[1] += 1;
                            }

                            else {
                                votes[0] += 1;
                            }
                        }

                        // tree #114
                        if (x[826] <= 0.5) {
                            if (x[508] <= 0.5) {
                                votes[2] += 1;
                            }

                            else {
                                votes[0] += 1;
                            }
                        }

                        else {
                            votes[1] += 1;
                        }

                        // tree #115
                        if (x[1209] <= 0.5) {
                            votes[0] += 1;
                        }

                        else {
                            if (x[1218] <= 0.5) {
                                votes[1] += 1;
                            }

                            else {
                                votes[2] += 1;
                            }
                        }

                        // tree #116
                        if (x[587] <= 0.5) {
                            if (x[1539] <= 0.5) {
                                votes[0] += 1;
                            }

                            else {
                                votes[1] += 1;
                            }
                        }

                        else {
                            votes[2] += 1;
                        }

                        // tree #117
                        if (x[775] <= 0.5) {
                            votes[2] += 1;
                        }

                        else {
                            if (x[420] <= 0.5) {
                                votes[0] += 1;
                            }

                            else {
                                votes[1] += 1;
                            }
                        }

                        // tree #118
                        if (x[1413] <= 0.5) {
                            if (x[35] <= 0.5) {
                                votes[0] += 1;
                            }

                            else {
                                votes[1] += 1;
                            }
                        }

                        else {
                            votes[2] += 1;
                        }

                        // tree #119
                        if (x[1539] <= 0.5) {
                            votes[0] += 1;
                        }

                        else {
                            if (x[1124] <= 0.5) {
                                votes[2] += 1;
                            }

                            else {
                                votes[1] += 1;
                            }
                        }

                        // tree #120
                        if (x[1029] <= 0.5) {
                            if (x[682] <= 0.5) {
                                votes[1] += 1;
                            }

                            else {
                                votes[2] += 1;
                            }
                        }

                        else {
                            votes[0] += 1;
                        }

                        // tree #121
                        if (x[1383] <= 0.5) {
                            if (x[517] <= 0.5) {
                                votes[1] += 1;
                            }

                            else {
                                votes[0] += 1;
                            }
                        }

                        else {
                            votes[2] += 1;
                        }

                        // tree #122
                        if (x[782] <= 0.5) {
                            votes[2] += 1;
                        }

                        else {
                            if (x[986] <= 0.5) {
                                votes[0] += 1;
                            }

                            else {
                                votes[1] += 1;
                            }
                        }

                        // tree #123
                        if (x[1245] <= 0.5) {
                            if (x[740] <= 0.5) {
                                votes[0] += 1;
                            }

                            else {
                                votes[1] += 1;
                            }
                        }

                        else {
                            votes[2] += 1;
                        }

                        // tree #124
                        if (x[1121] <= 0.5) {
                            if (x[1524] <= 0.5) {
                                votes[0] += 1;
                            }

                            else {
                                votes[2] += 1;
                            }
                        }

                        else {
                            votes[1] += 1;
                        }

                        // tree #125
                        if (x[1100] <= 0.5) {
                            if (x[646] <= 0.5) {
                                votes[0] += 1;
                            }

                            else {
                                votes[2] += 1;
                            }
                        }

                        else {
                            votes[1] += 1;
                        }

                        // tree #126
                        if (x[710] <= 0.5) {
                            votes[0] += 1;
                        }

                        else {
                            if (x[328] <= 0.5) {
                                votes[1] += 1;
                            }

                            else {
                                votes[2] += 1;
                            }
                        }

                        // tree #127
                        if (x[956] <= 0.5) {
                            if (x[1224] <= 0.5) {
                                votes[0] += 1;
                            }

                            else {
                                votes[1] += 1;
                            }
                        }

                        else {
                            votes[2] += 1;
                        }

                        // tree #128
                        if (x[1415] <= 0.5) {
                            if (x[1509] <= 0.5) {
                                votes[0] += 1;
                            }

                            else {
                                votes[1] += 1;
                            }
                        }

                        else {
                            votes[2] += 1;
                        }

                        // tree #129
                        if (x[1139] <= 0.5) {
                            if (x[341] <= 0.5) {
                                votes[0] += 1;
                            }

                            else {
                                votes[2] += 1;
                            }
                        }

                        else {
                            votes[1] += 1;
                        }

                        // tree #130
                        if (x[22] <= 0.5) {
                            votes[0] += 1;
                        }

                        else {
                            if (x[285] <= 0.5) {
                                votes[1] += 1;
                            }

                            else {
                                votes[2] += 1;
                            }
                        }

                        // tree #131
                        if (x[1125] <= 0.5) {
                            if (x[1319] <= 0.5) {
                                votes[2] += 1;
                            }

                            else {
                                votes[0] += 1;
                            }
                        }

                        else {
                            votes[1] += 1;
                        }

                        // tree #132
                        if (x[1001] <= 0.5) {
                            votes[2] += 1;
                        }

                        else {
                            if (x[158] <= 0.5) {
                                votes[0] += 1;
                            }

                            else {
                                votes[1] += 1;
                            }
                        }

                        // tree #133
                        if (x[646] <= 0.5) {
                            if (x[1082] <= 0.5) {
                                votes[0] += 1;
                            }

                            else {
                                votes[1] += 1;
                            }
                        }

                        else {
                            votes[2] += 1;
                        }

                        // tree #134
                        if (x[235] <= 0.5) {
                            if (x[1133] <= 0.5) {
                                votes[2] += 1;
                            }

                            else {
                                votes[1] += 1;
                            }
                        }

                        else {
                            votes[0] += 1;
                        }

                        // tree #135
                        if (x[1104] <= 0.5) {
                            votes[2] += 1;
                        }

                        else {
                            if (x[22] <= 0.5) {
                                votes[0] += 1;
                            }

                            else {
                                votes[1] += 1;
                            }
                        }

                        // tree #136
                        if (x[468] <= 0.5) {
                            if (x[1130] <= 0.5) {
                                votes[2] += 1;
                            }

                            else {
                                votes[1] += 1;
                            }
                        }

                        else {
                            votes[0] += 1;
                        }

                        // tree #137
                        if (x[698] <= 0.5) {
                            votes[0] += 1;
                        }

                        else {
                            if (x[1245] <= 0.5) {
                                votes[1] += 1;
                            }

                            else {
                                votes[2] += 1;
                            }
                        }

                        // tree #138
                        if (x[1216] <= 0.5) {
                            if (x[745] <= 0.5) {
                                votes[1] += 1;
                            }

                            else {
                                votes[0] += 1;
                            }
                        }

                        else {
                            votes[2] += 1;
                        }

                        // tree #139
                        if (x[158] <= 0.5) {
                            votes[0] += 1;
                        }

                        else {
                            if (x[1103] <= 0.5) {
                                votes[2] += 1;
                            }

                            else {
                                votes[1] += 1;
                            }
                        }

                        // tree #140
                        if (x[1029] <= 0.5) {
                            if (x[1155] <= 0.5) {
                                votes[2] += 1;
                            }

                            else {
                                votes[1] += 1;
                            }
                        }

                        else {
                            votes[0] += 1;
                        }

                        // tree #141
                        if (x[22] <= 0.5) {
                            votes[0] += 1;
                        }

                        else {
                            if (x[838] <= 0.5) {
                                votes[2] += 1;
                            }

                            else {
                                votes[1] += 1;
                            }
                        }

                        // tree #142
                        if (x[1263] <= 0.5) {
                            if (x[1048] <= 0.5) {
                                votes[2] += 1;
                            }

                            else {
                                votes[0] += 1;
                            }
                        }

                        else {
                            votes[1] += 1;
                        }

                        // tree #143
                        if (x[1383] <= 0.5) {
                            if (x[841] <= 0.5) {
                                votes[0] += 1;
                            }

                            else {
                                votes[1] += 1;
                            }
                        }

                        else {
                            votes[2] += 1;
                        }

                        // tree #144
                        if (x[1512] <= 0.5) {
                            votes[1] += 1;
                        }

                        else {
                            if (x[72] <= 0.5) {
                                votes[0] += 1;
                            }

                            else {
                                votes[2] += 1;
                            }
                        }

                        // tree #145
                        if (x[270] <= 0.5) {
                            if (x[973] <= 0.5) {
                                votes[0] += 1;
                            }

                            else {
                                votes[1] += 1;
                            }
                        }

                        else {
                            votes[2] += 1;
                        }

                        // tree #146
                        if (x[293] <= 0.5) {
                            if (x[971] <= 0.5) {
                                votes[0] += 1;
                            }

                            else {
                                votes[1] += 1;
                            }
                        }

                        else {
                            votes[2] += 1;
                        }

                        // tree #147
                        if (x[270] <= 0.5) {
                            if (x[439] <= 0.5) {
                                votes[0] += 1;
                            }

                            else {
                                votes[1] += 1;
                            }
                        }

                        else {
                            votes[2] += 1;
                        }

                        // tree #148
                        if (x[33] <= 0.5) {
                            votes[0] += 1;
                        }

                        else {
                            if (x[827] <= 0.5) {
                                votes[2] += 1;
                            }

                            else {
                                votes[1] += 1;
                            }
                        }

                        // tree #149
                        if (x[839] <= 0.5) {
                            if (x[32] <= 0.5) {
                                votes[0] += 1;
                            }

                            else {
                                votes[2] += 1;
                            }
                        }

                        else {
                            votes[1] += 1;
                        }

                        // tree #150
                        if (x[1114] <= 0.5) {
                            if (x[37] <= 0.5) {
                                votes[0] += 1;
                            }

                            else {
                                votes[2] += 1;
                            }
                        }

                        else {
                            votes[1] += 1;
                        }

                        // tree #151
                        if (x[1016] <= 0.5) {
                            votes[2] += 1;
                        }

                        else {
                            if (x[756] <= 0.5) {
                                votes[1] += 1;
                            }

                            else {
                                votes[0] += 1;
                            }
                        }

                        // tree #152
                        if (x[1512] <= 0.5) {
                            votes[1] += 1;
                        }

                        else {
                            if (x[811] <= 0.5) {
                                votes[2] += 1;
                            }

                            else {
                                votes[0] += 1;
                            }
                        }

                        // tree #153
                        if (x[1369] <= 0.5) {
                            if (x[454] <= 0.5) {
                                votes[0] += 1;
                            }

                            else {
                                votes[1] += 1;
                            }
                        }

                        else {
                            votes[2] += 1;
                        }

                        // tree #154
                        if (x[1111] <= 0.5) {
                            if (x[59] <= 0.5) {
                                votes[0] += 1;
                            }

                            else {
                                votes[2] += 1;
                            }
                        }

                        else {
                            votes[1] += 1;
                        }

                        // tree #155
                        if (x[48] <= 0.5) {
                            votes[0] += 1;
                        }

                        else {
                            if (x[789] <= 0.5) {
                                votes[2] += 1;
                            }

                            else {
                                votes[1] += 1;
                            }
                        }

                        // tree #156
                        if (x[850] <= 0.5) {
                            if (x[44] <= 0.5) {
                                votes[0] += 1;
                            }

                            else {
                                votes[2] += 1;
                            }
                        }

                        else {
                            votes[1] += 1;
                        }

                        // tree #157
                        if (x[1506] <= 0.5) {
                            if (x[1033] <= 0.5) {
                                votes[1] += 1;
                            }

                            else {
                                votes[0] += 1;
                            }
                        }

                        else {
                            votes[2] += 1;
                        }

                        // tree #158
                        if (x[775] <= 0.5) {
                            votes[2] += 1;
                        }

                        else {
                            if (x[725] <= 0.5) {
                                votes[0] += 1;
                            }

                            else {
                                votes[1] += 1;
                            }
                        }

                        // tree #159
                        if (x[233] <= 0.5) {
                            if (x[466] <= 0.5) {
                                votes[2] += 1;
                            }

                            else {
                                votes[1] += 1;
                            }
                        }

                        else {
                            votes[0] += 1;
                        }

                        // tree #160
                        if (x[837] <= 0.5) {
                            if (x[1077] <= 0.5) {
                                votes[2] += 1;
                            }

                            else {
                                votes[0] += 1;
                            }
                        }

                        else {
                            votes[1] += 1;
                        }

                        // tree #161
                        if (x[309] <= 0.5) {
                            if (x[61] <= 0.5) {
                                votes[0] += 1;
                            }

                            else {
                                votes[1] += 1;
                            }
                        }

                        else {
                            votes[2] += 1;
                        }

                        // tree #162
                        if (x[822] <= 0.5) {
                            if (x[38] <= 0.5) {
                                votes[0] += 1;
                            }

                            else {
                                votes[2] += 1;
                            }
                        }

                        else {
                            votes[1] += 1;
                        }

                        // tree #163
                        if (x[450] <= 0.5) {
                            votes[0] += 1;
                        }

                        else {
                            if (x[1117] <= 0.5) {
                                votes[2] += 1;
                            }

                            else {
                                votes[1] += 1;
                            }
                        }

                        // tree #164
                        if (x[587] <= 0.5) {
                            if (x[1151] <= 0.5) {
                                votes[0] += 1;
                            }

                            else {
                                votes[1] += 1;
                            }
                        }

                        else {
                            votes[2] += 1;
                        }

                        // tree #165
                        if (x[336] <= 0.5) {
                            if (x[697] <= 0.5) {
                                votes[0] += 1;
                            }

                            else {
                                votes[1] += 1;
                            }
                        }

                        else {
                            votes[2] += 1;
                        }

                        // tree #166
                        if (x[1066] <= 0.5) {
                            if (x[1028] <= 0.5) {
                                votes[2] += 1;
                            }

                            else {
                                votes[0] += 1;
                            }
                        }

                        else {
                            votes[1] += 1;
                        }

                        // tree #167
                        if (x[342] <= 0.5) {
                            if (x[710] <= 0.5) {
                                votes[0] += 1;
                            }

                            else {
                                votes[1] += 1;
                            }
                        }

                        else {
                            votes[2] += 1;
                        }

                        // tree #168
                        if (x[450] <= 0.5) {
                            votes[0] += 1;
                        }

                        else {
                            if (x[1398] <= 0.5) {
                                votes[1] += 1;
                            }

                            else {
                                votes[2] += 1;
                            }
                        }

                        // tree #169
                        if (x[838] <= 0.5) {
                            if (x[974] <= 0.5) {
                                votes[0] += 1;
                            }

                            else {
                                votes[2] += 1;
                            }
                        }

                        else {
                            votes[1] += 1;
                        }

                        // tree #170
                        if (x[1133] <= 0.5) {
                            if (x[1354] <= 0.5) {
                                votes[0] += 1;
                            }

                            else {
                                votes[2] += 1;
                            }
                        }

                        else {
                            votes[1] += 1;
                        }

                        // tree #171
                        if (x[457] <= 0.5) {
                            votes[1] += 1;
                        }

                        else {
                            if (x[1088] <= 0.5) {
                                votes[2] += 1;
                            }

                            else {
                                votes[0] += 1;
                            }
                        }

                        // tree #172
                        if (x[631] <= 0.5) {
                            if (x[439] <= 0.5) {
                                votes[0] += 1;
                            }

                            else {
                                votes[1] += 1;
                            }
                        }

                        else {
                            votes[2] += 1;
                        }

                        // tree #173
                        if (x[988] <= 0.5) {
                            if (x[812] <= 0.5) {
                                votes[2] += 1;
                            }

                            else {
                                votes[0] += 1;
                            }
                        }

                        else {
                            votes[1] += 1;
                        }

                        // tree #174
                        if (x[49] <= 0.5) {
                            votes[0] += 1;
                        }

                        else {
                            if (x[840] <= 0.5) {
                                votes[2] += 1;
                            }

                            else {
                                votes[1] += 1;
                            }
                        }

                        // tree #175
                        if (x[1598] <= 0.5) {
                            votes[2] += 1;
                        }

                        else {
                            if (x[837] <= 0.5) {
                                votes[0] += 1;
                            }

                            else {
                                votes[1] += 1;
                            }
                        }

                        // tree #176
                        if (x[73] <= 0.5) {
                            if (x[438] <= 0.5) {
                                votes[0] += 1;
                            }

                            else {
                                votes[1] += 1;
                            }
                        }

                        else {
                            votes[2] += 1;
                        }

                        // tree #177
                        if (x[292] <= 0.5) {
                            if (x[1063] <= 0.5) {
                                votes[1] += 1;
                            }

                            else {
                                votes[0] += 1;
                            }
                        }

                        else {
                            votes[2] += 1;
                        }

                        // tree #178
                        if (x[1110] <= 0.5) {
                            if (x[794] <= 0.5) {
                                votes[2] += 1;
                            }

                            else {
                                votes[0] += 1;
                            }
                        }

                        else {
                            votes[1] += 1;
                        }

                        // tree #179
                        if (x[1287] <= 0.5) {
                            votes[2] += 1;
                        }

                        else {
                            if (x[696] <= 0.5) {
                                votes[0] += 1;
                            }

                            else {
                                votes[1] += 1;
                            }
                        }

                        // tree #180
                        if (x[326] <= 0.5) {
                            if (x[1122] <= 0.5) {
                                votes[0] += 1;
                            }

                            else {
                                votes[1] += 1;
                            }
                        }

                        else {
                            votes[2] += 1;
                        }

                        // tree #181
                        if (x[840] <= 0.5) {
                            if (x[808] <= 0.5) {
                                votes[2] += 1;
                            }

                            else {
                                votes[0] += 1;
                            }
                        }

                        else {
                            votes[1] += 1;
                        }

                        // tree #182
                        if (x[973] <= 0.5) {
                            votes[0] += 1;
                        }

                        else {
                            if (x[1081] <= 0.5) {
                                votes[2] += 1;
                            }

                            else {
                                votes[1] += 1;
                            }
                        }

                        // tree #183
                        if (x[508] <= 0.5) {
                            if (x[188] <= 0.5) {
                                votes[2] += 1;
                            }

                            else {
                                votes[1] += 1;
                            }
                        }

                        else {
                            votes[0] += 1;
                        }

                        // tree #184
                        if (x[781] <= 0.5) {
                            votes[2] += 1;
                        }

                        else {
                            if (x[163] <= 0.5) {
                                votes[0] += 1;
                            }

                            else {
                                votes[1] += 1;
                            }
                        }

                        // tree #185
                        if (x[72] <= 0.5) {
                            if (x[1132] <= 0.5) {
                                votes[0] += 1;
                            }

                            else {
                                votes[1] += 1;
                            }
                        }

                        else {
                            votes[2] += 1;
                        }

                        // tree #186
                        if (x[143] <= 0.5) {
                            votes[0] += 1;
                        }

                        else {
                            if (x[1340] <= 0.5) {
                                votes[1] += 1;
                            }

                            else {
                                votes[2] += 1;
                            }
                        }

                        // tree #187
                        if (x[1355] <= 0.5) {
                            if (x[1122] <= 0.5) {
                                votes[0] += 1;
                            }

                            else {
                                votes[1] += 1;
                            }
                        }

                        else {
                            votes[2] += 1;
                        }

                        // tree #188
                        if (x[358] <= 0.5) {
                            if (x[437] <= 0.5) {
                                votes[0] += 1;
                            }

                            else {
                                votes[1] += 1;
                            }
                        }

                        else {
                            votes[2] += 1;
                        }

                        // tree #189
                        if (x[841] <= 0.5) {
                            if (x[646] <= 0.5) {
                                votes[0] += 1;
                            }

                            else {
                                votes[2] += 1;
                            }
                        }

                        else {
                            votes[1] += 1;
                        }

                        // tree #190
                        if (x[1058] <= 0.5) {
                            if (x[942] <= 0.5) {
                                votes[1] += 1;
                            }

                            else {
                                votes[2] += 1;
                            }
                        }

                        else {
                            votes[0] += 1;
                        }

                        // tree #191
                        if (x[760] <= 0.5) {
                            if (x[1133] <= 0.5) {
                                votes[2] += 1;
                            }

                            else {
                                votes[1] += 1;
                            }
                        }

                        else {
                            votes[0] += 1;
                        }

                        // tree #192
                        if (x[709] <= 0.5) {
                            votes[0] += 1;
                        }

                        else {
                            if (x[466] <= 0.5) {
                                votes[2] += 1;
                            }

                            else {
                                votes[1] += 1;
                            }
                        }

                        // tree #193
                        if (x[1069] <= 0.5) {
                            if (x[1363] <= 0.5) {
                                votes[2] += 1;
                            }

                            else {
                                votes[0] += 1;
                            }
                        }

                        else {
                            votes[1] += 1;
                        }

                        // tree #194
                        if (x[1060] <= 0.5) {
                            if (x[767] <= 0.5) {
                                votes[2] += 1;
                            }

                            else {
                                votes[1] += 1;
                            }
                        }

                        else {
                            votes[0] += 1;
                        }

                        // tree #195
                        if (x[1350] <= 0.5) {
                            if (x[322] <= 0.5) {
                                votes[1] += 1;
                            }

                            else {
                                votes[2] += 1;
                            }
                        }

                        else {
                            votes[0] += 1;
                        }

                        // tree #196
                        if (x[1303] <= 0.5) {
                            votes[2] += 1;
                        }

                        else {
                            if (x[494] <= 0.5) {
                                votes[1] += 1;
                            }

                            else {
                                votes[0] += 1;
                            }
                        }

                        // tree #197
                        if (x[1059] <= 0.5) {
                            if (x[1142] <= 0.5) {
                                votes[2] += 1;
                            }

                            else {
                                votes[1] += 1;
                            }
                        }

                        else {
                            votes[0] += 1;
                        }

                        // tree #198
                        if (x[1478] <= 0.5) {
                            if (x[419] <= 0.5) {
                                votes[0] += 1;
                            }

                            else {
                                votes[1] += 1;
                            }
                        }

                        else {
                            votes[2] += 1;
                        }

                        // tree #199
                        if (x[508] <= 0.5) {
                            if (x[1099] <= 0.5) {
                                votes[2] += 1;
                            }

                            else {
                                votes[1] += 1;
                            }
                        }

                        else {
                            votes[0] += 1;
                        }

                        // tree #200
                        if (x[357] <= 0.5) {
                            if (x[1102] <= 0.5) {
                                votes[0] += 1;
                            }

                            else {
                                votes[1] += 1;
                            }
                        }

                        else {
                            votes[2] += 1;
                        }

                        // tree #201
                        if (x[1494] <= 0.5) {
                            if (x[452] <= 0.5) {
                                votes[0] += 1;
                            }

                            else {
                                votes[1] += 1;
                            }
                        }

                        else {
                            votes[2] += 1;
                        }

                        // tree #202
                        if (x[236] <= 0.5) {
                            if (x[682] <= 0.5) {
                                votes[1] += 1;
                            }

                            else {
                                votes[2] += 1;
                            }
                        }

                        else {
                            votes[0] += 1;
                        }

                        // tree #203
                        if (x[800] <= 0.5) {
                            votes[2] += 1;
                        }

                        else {
                            if (x[451] <= 0.5) {
                                votes[0] += 1;
                            }

                            else {
                                votes[1] += 1;
                            }
                        }

                        // tree #204
                        if (x[61] <= 0.5) {
                            votes[0] += 1;
                        }

                        else {
                            if (x[652] <= 0.5) {
                                votes[1] += 1;
                            }

                            else {
                                votes[2] += 1;
                            }
                        }

                        // tree #205
                        if (x[233] <= 0.5) {
                            if (x[586] <= 0.5) {
                                votes[1] += 1;
                            }

                            else {
                                votes[2] += 1;
                            }
                        }

                        else {
                            votes[0] += 1;
                        }

                        // tree #206
                        if (x[1217] <= 0.5) {
                            if (x[51] <= 0.5) {
                                votes[0] += 1;
                            }

                            else {
                                votes[1] += 1;
                            }
                        }

                        else {
                            votes[2] += 1;
                        }

                        // tree #207
                        if (x[1400] <= 0.5) {
                            if (x[1521] <= 0.5) {
                                votes[0] += 1;
                            }

                            else {
                                votes[1] += 1;
                            }
                        }

                        else {
                            votes[2] += 1;
                        }

                        // tree #208
                        if (x[1081] <= 0.5) {
                            if (x[695] <= 0.5) {
                                votes[0] += 1;
                            }

                            else {
                                votes[2] += 1;
                            }
                        }

                        else {
                            votes[1] += 1;
                        }

                        // tree #209
                        if (x[1048] <= 0.5) {
                            if (x[73] <= 0.5) {
                                votes[1] += 1;
                            }

                            else {
                                votes[2] += 1;
                            }
                        }

                        else {
                            votes[0] += 1;
                        }

                        // tree #210
                        if (x[1524] <= 0.5) {
                            votes[0] += 1;
                        }

                        else {
                            if (x[1118] <= 0.5) {
                                votes[2] += 1;
                            }

                            else {
                                votes[1] += 1;
                            }
                        }

                        // tree #211
                        if (x[1209] <= 0.5) {
                            votes[0] += 1;
                        }

                        else {
                            if (x[820] <= 0.5) {
                                votes[2] += 1;
                            }

                            else {
                                votes[1] += 1;
                            }
                        }

                        // tree #212
                        if (x[437] <= 0.5) {
                            votes[0] += 1;
                        }

                        else {
                            if (x[1369] <= 0.5) {
                                votes[1] += 1;
                            }

                            else {
                                votes[2] += 1;
                            }
                        }

                        // tree #213
                        if (x[972] <= 0.5) {
                            votes[0] += 1;
                        }

                        else {
                            if (x[1132] <= 0.5) {
                                votes[2] += 1;
                            }

                            else {
                                votes[1] += 1;
                            }
                        }

                        // tree #214
                        if (x[841] <= 0.5) {
                            if (x[683] <= 0.5) {
                                votes[0] += 1;
                            }

                            else {
                                votes[2] += 1;
                            }
                        }

                        else {
                            votes[1] += 1;
                        }

                        // tree #215
                        if (x[1353] <= 0.5) {
                            if (x[1110] <= 0.5) {
                                votes[0] += 1;
                            }

                            else {
                                votes[1] += 1;
                            }
                        }

                        else {
                            votes[2] += 1;
                        }

                        // tree #216
                        if (x[419] <= 0.5) {
                            votes[0] += 1;
                        }

                        else {
                            if (x[295] <= 0.5) {
                                votes[1] += 1;
                            }

                            else {
                                votes[2] += 1;
                            }
                        }

                        // tree #217
                        if (x[1137] <= 0.5) {
                            votes[0] += 1;
                        }

                        else {
                            if (x[1304] <= 0.5) {
                                votes[2] += 1;
                            }

                            else {
                                votes[1] += 1;
                            }
                        }

                        // tree #218
                        if (x[1348] <= 0.5) {
                            if (x[956] <= 0.5) {
                                votes[1] += 1;
                            }

                            else {
                                votes[2] += 1;
                            }
                        }

                        else {
                            votes[0] += 1;
                        }

                        // tree #219
                        if (x[754] <= 0.5) {
                            votes[2] += 1;
                        }

                        else {
                            if (x[19] <= 0.5) {
                                votes[0] += 1;
                            }

                            else {
                                votes[1] += 1;
                            }
                        }

                        // tree #220
                        if (x[19] <= 0.5) {
                            votes[0] += 1;
                        }

                        else {
                            if (x[650] <= 0.5) {
                                votes[1] += 1;
                            }

                            else {
                                votes[2] += 1;
                            }
                        }

                        // tree #221
                        if (x[494] <= 0.5) {
                            if (x[203] <= 0.5) {
                                votes[2] += 1;
                            }

                            else {
                                votes[1] += 1;
                            }
                        }

                        else {
                            votes[0] += 1;
                        }

                        // tree #222
                        if (x[988] <= 0.5) {
                            if (x[741] <= 0.5) {
                                votes[2] += 1;
                            }

                            else {
                                votes[0] += 1;
                            }
                        }

                        else {
                            votes[1] += 1;
                        }

                        // tree #223
                        if (x[293] <= 0.5) {
                            if (x[1509] <= 0.5) {
